net 
{
    node_size = (76 36);
}

node CurrentLULC
{
    label = "CurrentLULC";
    position = (904 202);
    states = ("forest"  "arable"  "other");
}

node LegalStatus
{
    label = "LegalStatus";
    position = (724 202);
    states = ("public"  "private"  "protected");
}

node Slope
{
    label = "Slope";
    position = (524 202);
    states = ("flat"  "moderate"  "steep");
}

node Stakeholders
{
    label = "Stakeholders";
    position = (575 73);
    states = ("farmers"  "localGvt"  "tourists");
}

node Scenarios
{
    label = "Scenarios";
    position = (354 206);
    states = ("intensification"  "sustainable");
}

node RelativePreference
{
    label = "RelativePreference";
    position = (464 -18);
    states = ("forest"  "arable"  "other");
}

node FinalLULC
{
    label = "FinalLULC";
    position = (664 -18);
    states = ("forest"  "arable"  "other");
}

node CarbonStock
{
    label = "CarbonStock";
    position = (864 -18);
    states = ("high"  "moderate"  "low");
}

potential (CurrentLULC |)
{
    data = (0.33333333 0.33333333 0.33333333);
}

potential (LegalStatus |)
{
    data = (0.20000000 0.70000000 0.10000000);
}

potential (Slope |)
{
    data = (0.33333333 0.33333333 0.33333333);
}

potential (Stakeholders | LegalStatus)
{
    data = ((0.20000000 0.60000000 0.20000000)
        (0.70000000 0.20000000 0.10000000)
        (0.10000000 0.40000000 0.50000000));
}

potential (Scenarios |)
{
    data = (0.50000000 0.50000000);
}

potential (RelativePreference | Scenarios Slope Stakeholders)
{
    data = ((((0.05000000 0.90000000 0.05000000)
        (0.20000000 0.30000000 0.50000000)
        (0.60000000 0.05000000 0.35000000))
        ((0.40000000 0.40000000 0.20000000)
        (0.50000000 0.30000000 0.20000000)
        (0.60000000 0.05000000 0.35000000))
        ((0.80000000 0.00000000 0.20000000)
        (0.90000000 0.00000000 0.10000000)
        (0.60000000 0.05000000 0.35000000)))
        (((0.20000000 0.70000000 0.10000000)
        (0.50000000 0.20000000 0.30000000)
        (0.50000000 0.20000000 0.30000000))
        ((0.60000000 0.20000000 0.20000000)
        (0.70000000 0.10000000 0.20000000)
        (0.50000000 0.20000000 0.30000000))
        ((0.95000000 0.00000000 0.05000000)
        (1.00000000 0.00000000 0.00000000)
        (0.50000000 0.20000000 0.30000000))));
}

potential (FinalLULC | LegalStatus CurrentLULC RelativePreference)
{
    data = ((((1.00000000 0.00000000 0.00000000)
        (0.80000000 0.20000000 0.00000000)
        (0.80000000 0.00000000 0.20000000))
        ((0.70000000 0.25000000 0.05000000)
        (0.25000000 0.70000000 0.05000000)
        (0.25000000 0.05000000 0.70000000))
        ((0.70000000 0.05000000 0.25000000)
        (0.25000000 0.70000000 0.05000000)
        (0.25000000 0.05000000 0.70000000)))
        (((1.00000000 0.00000000 0.00000000)
        (0.25000000 0.75000000 0.00000000)
        (0.25000000 0.00000000 0.75000000))
        ((0.75000000 0.25000000 0.00000000)
        (0.00000000 1.00000000 0.00000000)
        (0.00000000 0.25000000 0.75000000))
        ((0.70000000 0.05000000 0.25000000)
        (0.25000000 0.70000000 0.05000000)
        (0.00000000 0.00000000 1.00000000)))
        (((1.00000000 0.00000000 0.00000000)
        (0.95000000 0.05000000 0.00000000)
        (0.95000000 0.00000000 0.05000000))
        ((0.75000000 0.20000000 0.05000000)
        (0.30000000 0.65000000 0.05000000)
        (0.30000000 0.05000000 0.65000000))
        ((0.75000000 0.05000000 0.20000000)
        (0.30000000 0.65000000 0.05000000)
        (0.30000000 0.05000000 0.65000000))));
}

potential (CarbonStock | FinalLULC Slope)
{
    data = (((0.90000000 0.10000000 0.00000000)
        (0.75000000 0.20000000 0.05000000)
        (0.60000000 0.30000000 0.10000000))
        ((0.10000000 0.30000000 0.60000000)
        (0.00000000 0.15000000 0.85000000)
        (0.00000000 0.05000000 0.95000000))
        ((0.30000000 0.40000000 0.30000000)
        (0.20000000 0.30000000 0.50000000)
        (0.10000000 0.20000000 0.70000000)));
}
